-0.38350007
-0.04694518
-0.03167066
-0.24157682
-0.13254343
-0.31630868
0.05808782
0.09422979
0.5191122
-0.40584955
0.2108612
0.03074981
0.13127095
-0.17869717
0.12071727
0.17673644
-0.562526
0.11821839
0.086445734
-0.35239565
-0.32982302
-0.078805216
0.09966618
-0.08263421
-0.039567165
-0.25956947
-0.18923925
-0.09566099
0.33129647
0.104982406
0.35607418
0.1401606
-0.38296974
-0.056788914
-0.08506161
-0.10987473
-0.060575373
-0.30471197
0.14054736
-0.15077668
0.07357903
-0.06341338
-0.2813721
-0.34570074
0.12111943
0.24636926
0.4843735
0.24955122
-0.5541657
-0.08986405
0.2462532
-0.23535848
-0.43078735
-0.22294328
0.05596745
-0.44533408
-0.19648886
-0.45174402
-0.13899523
-0.23333213
0.25803018
0.11461132
0.08452333
0.44538736
-0.14809597
-0.16772787
-0.25726804
-0.36833867
-0.4567213
-0.34977168
0.2477456
-0.51137906
-0.66603214
-0.10134063
-0.46837586
-0.65500265
0.1452548
0.43368617
0.18462804
0.20774011
-0.3020529
-0.4259431
-0.19722894
-0.123414196
-0.21285515
-0.3097828
0.2110233
-0.29896516
-0.2698678
0.0018393177
-0.25943974
-0.34252214
-0.15518388
0.3051041
0.18976264
0.50645024
-0.14954875
-0.19471961
0.12732992
0.11728517
-0.23246352
-0.25742877
0.31358957
-0.37151206
-0.24544694
-0.43127564
-0.05851889
-0.25443363
0.07257471
0.43652973
0.2927834
0.22634563
-0.12620261
-0.5240123
-0.2113785
0.08131125
-0.1374455
-0.36360162
0.20783442
-0.4087425
-0.5220828
-0.020086903
-0.13088359
-0.22190017
-0.14854258
0.30839935
0.1888141
0.28288972
-0.46609122
-0.28974527
-0.41242012
0.20948824
-0.07646666
-0.027227892
0.1405113
-0.13609196
-0.10008954
-0.0050852993
0.33635715
0.20104553
-0.32203126
0.16189289
0.17957154
0.21009053
